var0 = 0
delimiter
var1 = 1
delimiter
var2 = 2
delimiter
var3 = 3
delimiter
var4 = 4
delimiter
var5 = 5
delimiter
var6 = 6
delimiter
var7 = 7
delimiter
var8 = 8
delimiter
var9 = 9
delimiter
var10 = 10
delimiter
var11 = 11
delimiter
var12 = 12
delimiter
var13 = 13
delimiter
var14 = 14
delimiter
var15 = 15
delimiter
var16 = 16
delimiter
var17 = 17
delimiter
var18 = 18
delimiter
var19 = 19
delimiter
var20 = 20
delimiter
var21 = 21
delimiter
var22 = 22
delimiter
var23 = 23
delimiter
var24 = 24
delimiter
var25 = 25
delimiter
var26 = 26
delimiter
var27 = 27
delimiter
var28 = 28
delimiter
var29 = 29
delimiter
var30 = 30
delimiter
var31 = 31
delimiter
var32 = 32
delimiter
var33 = 33
delimiter
var34 = 34
delimiter
var35 = 35
delimiter
var36 = 36
delimiter
var37 = 37
delimiter
var38 = 38
delimiter
var39 = 39
delimiter
var40 = 40
delimiter
var41 = 41
delimiter
var42 = 42
delimiter
var43 = 43
delimiter
var44 = 44
delimiter
var45 = 45
delimiter
var46 = 46
delimiter
var47 = 47
delimiter
var48 = 48
delimiter
var49 = 49
delimiter
var50 = 50
delimiter
var51 = 51
delimiter
var52 = 52
delimiter
var53 = 53
delimiter
var54 = 54
delimiter
var55 = 55
delimiter
var56 = 56
delimiter
var57 = 57
delimiter
var58 = 58
delimiter
var59 = 59
delimiter
var60 = 60
delimiter
var61 = 61
delimiter
var62 = 62
delimiter
var63 = 63
delimiter
var64 = 64
delimiter
var65 = 65
delimiter
var66 = 66
delimiter
var67 = 67
delimiter
var68 = 68
delimiter
var69 = 69
delimiter
var70 = 70
delimiter
var71 = 71
delimiter
var72 = 72
delimiter
var73 = 73
delimiter
var74 = 74
delimiter
var75 = 75
delimiter
var76 = 76
delimiter
var77 = 77
delimiter
var78 = 78
delimiter
var79 = 79
delimiter
var80 = 80
delimiter
var81 = 81
delimiter
var82 = 82
delimiter
var83 = 83
delimiter
var84 = 84
delimiter
var85 = 85
delimiter
var86 = 86
delimiter
var87 = 87
delimiter
var88 = 88
delimiter
var89 = 89
delimiter
var90 = 90
delimiter
var91 = 91
delimiter
var92 = 92
delimiter
var93 = 93
delimiter
var94 = 94
delimiter
var95 = 95
delimiter
var96 = 96
delimiter
var97 = 97
delimiter
var98 = 98
delimiter
var99 = 99
delimiter
var100 = 100
delimiter
var101 = 101
delimiter
var102 = 102
delimiter
var103 = 103
delimiter
var104 = 104
delimiter
var105 = 105
delimiter
var106 = 106
delimiter
var107 = 107
delimiter
var108 = 108
delimiter
var109 = 109
delimiter
var110 = 110
delimiter
var111 = 111
delimiter
var112 = 112
delimiter
var113 = 113
delimiter
var114 = 114
delimiter
var115 = 115
delimiter
var116 = 116
delimiter
var117 = 117
delimiter
var118 = 118
delimiter
var119 = 119
delimiter
var120 = 120
delimiter
var121 = 121
delimiter
var122 = 122
delimiter
var123 = 123
delimiter
var124 = 124
delimiter
var125 = 125
delimiter
var126 = 126
delimiter
var127 = 127
delimiter
var128 = 128
delimiter
var129 = 129
delimiter
var130 = 130
delimiter
var131 = 131
delimiter
var132 = 132
delimiter
var133 = 133
delimiter
var134 = 134
delimiter
var135 = 135
delimiter
var136 = 136
delimiter
var137 = 137
delimiter
var138 = 138
delimiter
var139 = 139
delimiter
var140 = 140
delimiter
var141 = 141
delimiter
var142 = 142
delimiter
var143 = 143
delimiter
var144 = 144
delimiter
var145 = 145
delimiter
var146 = 146
delimiter
var147 = 147
delimiter
var148 = 148
delimiter
var149 = 149
delimiter
var150 = 150
delimiter
var151 = 151
delimiter
var152 = 152
delimiter
var153 = 153
delimiter
var154 = 154
delimiter
var155 = 155
delimiter
var156 = 156
delimiter
var157 = 157
delimiter
var158 = 158
delimiter
var159 = 159
delimiter
var160 = 160
delimiter
var161 = 161
delimiter
var162 = 162
delimiter
var163 = 163
delimiter
var164 = 164
delimiter
var165 = 165
delimiter
var166 = 166
delimiter
var167 = 167
delimiter
var168 = 168
delimiter
var169 = 169
delimiter
var170 = 170
delimiter
var171 = 171
delimiter
var172 = 172
delimiter
var173 = 173
delimiter
var174 = 174
delimiter
var175 = 175
delimiter
var176 = 176
delimiter
var177 = 177
delimiter
var178 = 178
delimiter
var179 = 179
delimiter
var180 = 180
delimiter
var181 = 181
delimiter
var182 = 182
delimiter
var183 = 183
delimiter
var184 = 184
delimiter
var185 = 185
delimiter
var186 = 186
delimiter
var187 = 187
delimiter
var188 = 188
delimiter
var189 = 189
delimiter
var190 = 190
delimiter
var191 = 191
delimiter
var192 = 192
delimiter
var193 = 193
delimiter
var194 = 194
delimiter
var195 = 195
delimiter
var196 = 196
delimiter
var197 = 197
delimiter
var198 = 198
delimiter
var199 = 199
delimiter
var200 = 200
delimiter
var201 = 201
delimiter
var202 = 202
delimiter
var203 = 203
delimiter
var204 = 204
delimiter
var205 = 205
delimiter
var206 = 206
delimiter
var207 = 207
delimiter
var208 = 208
delimiter
var209 = 209
delimiter
var210 = 210
delimiter
var211 = 211
delimiter
var212 = 212
delimiter
var213 = 213
delimiter
var214 = 214
delimiter
var215 = 215
delimiter
var216 = 216
delimiter
var217 = 217
delimiter
var218 = 218
delimiter
var219 = 219
delimiter
var220 = 220
delimiter
var221 = 221
delimiter
var222 = 222
delimiter
var223 = 223
delimiter
var224 = 224
delimiter
var225 = 225
delimiter
var226 = 226
delimiter
var227 = 227
delimiter
var228 = 228
delimiter
var229 = 229
delimiter
var230 = 230
delimiter
var231 = 231
delimiter
var232 = 232
delimiter
var233 = 233
delimiter
var234 = 234
delimiter
var235 = 235
delimiter
var236 = 236
delimiter
var237 = 237
delimiter
var238 = 238
delimiter
var239 = 239
delimiter
var240 = 240
delimiter
var241 = 241
delimiter
var242 = 242
delimiter
var243 = 243
delimiter
var244 = 244
delimiter
var245 = 245
delimiter
var246 = 246
delimiter
var247 = 247
delimiter
var248 = 248
delimiter
var249 = 249
delimiter
var250 = 250
delimiter
var251 = 251
delimiter
var252 = 252
delimiter
var253 = 253
delimiter
var254 = 254
delimiter
var255 = 255
delimiter
var256 = 256
delimiter
var257 = 257
delimiter
var258 = 258
delimiter
var259 = 259
delimiter
var260 = 260
delimiter
var261 = 261
delimiter
var262 = 262
delimiter
var263 = 263
delimiter
var264 = 264
delimiter
var265 = 265
delimiter
var266 = 266
delimiter
var267 = 267
delimiter
var268 = 268
delimiter
var269 = 269
delimiter
var270 = 270
delimiter
var271 = 271
delimiter
var272 = 272
delimiter
var273 = 273
delimiter
var274 = 274
delimiter
var275 = 275
delimiter
var276 = 276
delimiter
var277 = 277
delimiter
var278 = 278
delimiter
var279 = 279
delimiter
var280 = 280
delimiter
var281 = 281
delimiter
var282 = 282
delimiter
var283 = 283
delimiter
var284 = 284
delimiter
var285 = 285
delimiter
var286 = 286
delimiter
var287 = 287
delimiter
var288 = 288
delimiter
var289 = 289
delimiter
var290 = 290
delimiter
var291 = 291
delimiter
var292 = 292
delimiter
var293 = 293
delimiter
var294 = 294
delimiter
var295 = 295
delimiter
var296 = 296
delimiter
var297 = 297
delimiter
var298 = 298
delimiter
var299 = 299
delimiter
var300 = 300
delimiter
var301 = 301
delimiter
var302 = 302
delimiter
var303 = 303
delimiter
var304 = 304
delimiter
var305 = 305
delimiter
var306 = 306
delimiter
var307 = 307
delimiter
var308 = 308
delimiter
var309 = 309
delimiter
var310 = 310
delimiter
var311 = 311
delimiter
var312 = 312
delimiter
var313 = 313
delimiter
var314 = 314
delimiter
var315 = 315
delimiter
var316 = 316
delimiter
var317 = 317
delimiter
var318 = 318
delimiter
var319 = 319
delimiter
var320 = 320
delimiter
var321 = 321
delimiter
var322 = 322
delimiter
var323 = 323
delimiter
var324 = 324
delimiter
var325 = 325
delimiter
var326 = 326
delimiter
var327 = 327
delimiter
var328 = 328
delimiter
var329 = 329
delimiter
var330 = 330
delimiter
var331 = 331
delimiter
var332 = 332
delimiter
var333 = 333
delimiter
var334 = 334
delimiter
var335 = 335
delimiter
var336 = 336
delimiter
var337 = 337
delimiter
var338 = 338
delimiter
var339 = 339
delimiter
var340 = 340
delimiter
var341 = 341
delimiter
var342 = 342
delimiter
var343 = 343
delimiter
var344 = 344
delimiter
var345 = 345
delimiter
var346 = 346
delimiter
var347 = 347
delimiter
var348 = 348
delimiter
var349 = 349
delimiter
var350 = 350
delimiter
var351 = 351
delimiter
var352 = 352
delimiter
var353 = 353
delimiter
var354 = 354
delimiter
var355 = 355
delimiter
var356 = 356
delimiter
var357 = 357
delimiter
var358 = 358
delimiter
var359 = 359
delimiter
var360 = 360
delimiter
var361 = 361
delimiter
var362 = 362
delimiter
var363 = 363
delimiter
var364 = 364
delimiter
var365 = 365
delimiter
var366 = 366
delimiter
var367 = 367
delimiter
var368 = 368
delimiter
var369 = 369
delimiter
var370 = 370
delimiter
var371 = 371
delimiter
var372 = 372
delimiter
var373 = 373
delimiter
var374 = 374
delimiter
var375 = 375
delimiter
var376 = 376
delimiter
var377 = 377
delimiter
var378 = 378
delimiter
var379 = 379
delimiter
var380 = 380
delimiter
var381 = 381
delimiter
var382 = 382
delimiter
var383 = 383
delimiter
var384 = 384
delimiter
var385 = 385
delimiter
var386 = 386
delimiter
var387 = 387
delimiter
var388 = 388
delimiter
var389 = 389
delimiter
var390 = 390
delimiter
var391 = 391
delimiter
var392 = 392
delimiter
var393 = 393
delimiter
var394 = 394
delimiter
var395 = 395
delimiter
var396 = 396
delimiter
var397 = 397
delimiter
var398 = 398
delimiter
var399 = 399
delimiter
var400 = 400
delimiter
var401 = 401
delimiter
var402 = 402
delimiter
var403 = 403
delimiter
var404 = 404
delimiter
var405 = 405
delimiter
var406 = 406
delimiter
var407 = 407
delimiter
var408 = 408
delimiter
var409 = 409
delimiter
var410 = 410
delimiter
var411 = 411
delimiter
var412 = 412
delimiter
var413 = 413
delimiter
var414 = 414
delimiter
var415 = 415
delimiter
var416 = 416
delimiter
var417 = 417
delimiter
var418 = 418
delimiter
var419 = 419
delimiter
var420 = 420
delimiter
var421 = 421
delimiter
var422 = 422
delimiter
var423 = 423
delimiter
var424 = 424
delimiter
var425 = 425
delimiter
var426 = 426
delimiter
var427 = 427
delimiter
var428 = 428
delimiter
var429 = 429
delimiter
var430 = 430
delimiter
var431 = 431
delimiter
var432 = 432
delimiter
var433 = 433
delimiter
var434 = 434
delimiter
var435 = 435
delimiter
var436 = 436
delimiter
var437 = 437
delimiter
var438 = 438
delimiter
var439 = 439
delimiter
var440 = 440
delimiter
var441 = 441
delimiter
var442 = 442
delimiter
var443 = 443
delimiter
var444 = 444
delimiter
var445 = 445
delimiter
var446 = 446
delimiter
var447 = 447
delimiter
var448 = 448
delimiter
var449 = 449
delimiter
var450 = 450
delimiter
var451 = 451
delimiter
var452 = 452
delimiter
var453 = 453
delimiter
var454 = 454
delimiter
var455 = 455
delimiter
var456 = 456
delimiter
var457 = 457
delimiter
var458 = 458
delimiter
var459 = 459
delimiter
var460 = 460
delimiter
var461 = 461
delimiter
var462 = 462
delimiter
var463 = 463
delimiter
var464 = 464
delimiter
var465 = 465
delimiter
var466 = 466
delimiter
var467 = 467
delimiter
var468 = 468
delimiter
var469 = 469
delimiter
var470 = 470
delimiter
var471 = 471
delimiter
var472 = 472
delimiter
var473 = 473
delimiter
var474 = 474
delimiter
var475 = 475
delimiter
var476 = 476
delimiter
var477 = 477
delimiter
var478 = 478
delimiter
var479 = 479
delimiter
var480 = 480
delimiter
var481 = 481
delimiter
var482 = 482
delimiter
var483 = 483
delimiter
var484 = 484
delimiter
var485 = 485
delimiter
var486 = 486
delimiter
var487 = 487
delimiter
var488 = 488
delimiter
var489 = 489
delimiter
var490 = 490
delimiter
var491 = 491
delimiter
var492 = 492
delimiter
var493 = 493
delimiter
var494 = 494
delimiter
var495 = 495
delimiter
var496 = 496
delimiter
var497 = 497
delimiter
var498 = 498
delimiter
var499 = 499
delimiter
var500 = 500
delimiter
var501 = 501
delimiter
var502 = 502
delimiter
var503 = 503
delimiter
var504 = 504
delimiter
var505 = 505
delimiter
var506 = 506
delimiter
var507 = 507
delimiter
var508 = 508
delimiter
var509 = 509
delimiter
var510 = 510
delimiter
var511 = 511
delimiter
var512 = 512
delimiter
var513 = 513
delimiter
var514 = 514
delimiter
var515 = 515
delimiter
var516 = 516
delimiter
var517 = 517
delimiter
var518 = 518
delimiter
var519 = 519
delimiter
var520 = 520
delimiter
var521 = 521
delimiter
var522 = 522
delimiter
var523 = 523
delimiter
var524 = 524
delimiter
var525 = 525
delimiter
var526 = 526
delimiter
var527 = 527
delimiter
var528 = 528
delimiter
var529 = 529
delimiter
var530 = 530
delimiter
var531 = 531
delimiter
var532 = 532
delimiter
var533 = 533
delimiter
var534 = 534
delimiter
var535 = 535
delimiter
var536 = 536
delimiter
var537 = 537
delimiter
var538 = 538
delimiter
var539 = 539
delimiter
var540 = 540
delimiter
var541 = 541
delimiter
var542 = 542
delimiter
var543 = 543
delimiter
var544 = 544
delimiter
var545 = 545
delimiter
var546 = 546
delimiter
var547 = 547
delimiter
var548 = 548
delimiter
var549 = 549
delimiter
var550 = 550
delimiter
var551 = 551
delimiter
var552 = 552
delimiter
var553 = 553
delimiter
var554 = 554
delimiter
var555 = 555
delimiter
var556 = 556
delimiter
var557 = 557
delimiter
var558 = 558
delimiter
var559 = 559
delimiter
var560 = 560
delimiter
var561 = 561
delimiter
var562 = 562
delimiter
var563 = 563
delimiter
var564 = 564
delimiter
var565 = 565
delimiter
var566 = 566
delimiter
var567 = 567
delimiter
var568 = 568
delimiter
var569 = 569
delimiter
var570 = 570
delimiter
var571 = 571
delimiter
var572 = 572
delimiter
var573 = 573
delimiter
var574 = 574
delimiter
var575 = 575
delimiter
var576 = 576
delimiter
var577 = 577
delimiter
var578 = 578
delimiter
var579 = 579
delimiter
var580 = 580
delimiter
var581 = 581
delimiter
var582 = 582
delimiter
var583 = 583
delimiter
var584 = 584
delimiter
var585 = 585
delimiter
var586 = 586
delimiter
var587 = 587
delimiter
var588 = 588
delimiter
var589 = 589
delimiter
var590 = 590
delimiter
var591 = 591
delimiter
var592 = 592
delimiter
var593 = 593
delimiter
var594 = 594
delimiter
var595 = 595
delimiter
var596 = 596
delimiter
var597 = 597
delimiter
var598 = 598
delimiter
var599 = 599
delimiter
var600 = 600
delimiter
var601 = 601
delimiter
var602 = 602
delimiter
var603 = 603
delimiter
var604 = 604
delimiter
var605 = 605
delimiter
var606 = 606
delimiter
var607 = 607
delimiter
var608 = 608
delimiter
var609 = 609
delimiter
var610 = 610
delimiter
var611 = 611
delimiter
var612 = 612
delimiter
var613 = 613
delimiter
var614 = 614
delimiter
var615 = 615
delimiter
var616 = 616
delimiter
var617 = 617
delimiter
var618 = 618
delimiter
var619 = 619
delimiter
var620 = 620
delimiter
var621 = 621
delimiter
var622 = 622
delimiter
var623 = 623
delimiter
var624 = 624
delimiter
var625 = 625
delimiter
var626 = 626
delimiter
var627 = 627
delimiter
var628 = 628
delimiter
var629 = 629
delimiter
var630 = 630
delimiter
var631 = 631
delimiter
var632 = 632
delimiter
var633 = 633
delimiter
var634 = 634
delimiter
var635 = 635
delimiter
var636 = 636
delimiter
var637 = 637
delimiter
var638 = 638
delimiter
var639 = 639
delimiter
var640 = 640
delimiter
var641 = 641
delimiter
var642 = 642
delimiter
var643 = 643
delimiter
var644 = 644
delimiter
var645 = 645
delimiter
var646 = 646
delimiter
var647 = 647
delimiter
var648 = 648
delimiter
var649 = 649
delimiter
var650 = 650
delimiter
var651 = 651
delimiter
var652 = 652
delimiter
var653 = 653
delimiter
var654 = 654
delimiter
var655 = 655
delimiter
var656 = 656
delimiter
var657 = 657
delimiter
var658 = 658
delimiter
var659 = 659
delimiter
var660 = 660
delimiter
var661 = 661
delimiter
var662 = 662
delimiter
var663 = 663
delimiter
var664 = 664
delimiter
var665 = 665
delimiter
var666 = 666
delimiter
var667 = 667
delimiter
var668 = 668
delimiter
var669 = 669
delimiter
var670 = 670
delimiter
var671 = 671
delimiter
var672 = 672
delimiter
var673 = 673
delimiter
var674 = 674
delimiter
var675 = 675
delimiter
var676 = 676
delimiter
var677 = 677
delimiter
var678 = 678
delimiter
var679 = 679
delimiter
var680 = 680
delimiter
var681 = 681
delimiter
var682 = 682
delimiter
var683 = 683
delimiter
var684 = 684
delimiter
var685 = 685
delimiter
var686 = 686
delimiter
var687 = 687
delimiter
var688 = 688
delimiter
var689 = 689
delimiter
var690 = 690
delimiter
var691 = 691
delimiter
var692 = 692
delimiter
var693 = 693
delimiter
var694 = 694
delimiter
var695 = 695
delimiter
var696 = 696
delimiter
var697 = 697
delimiter
var698 = 698
delimiter
var699 = 699
delimiter
var700 = 700
delimiter
var701 = 701
delimiter
var702 = 702
delimiter
var703 = 703
delimiter
var704 = 704
delimiter
var705 = 705
delimiter
var706 = 706
delimiter
var707 = 707
delimiter
var708 = 708
delimiter
var709 = 709
delimiter
var710 = 710
delimiter
var711 = 711
delimiter
var712 = 712
delimiter
var713 = 713
delimiter
var714 = 714
delimiter
var715 = 715
delimiter
var716 = 716
delimiter
var717 = 717
delimiter
var718 = 718
delimiter
var719 = 719
delimiter
var720 = 720
delimiter
var721 = 721
delimiter
var722 = 722
delimiter
var723 = 723
delimiter
var724 = 724
delimiter
var725 = 725
delimiter
var726 = 726
delimiter
var727 = 727
delimiter
var728 = 728
delimiter
var729 = 729
delimiter
var730 = 730
delimiter
var731 = 731
delimiter
var732 = 732
delimiter
var733 = 733
delimiter
var734 = 734
delimiter
var735 = 735
delimiter
var736 = 736
delimiter
var737 = 737
delimiter
var738 = 738
delimiter
var739 = 739
delimiter
var740 = 740
delimiter
var741 = 741
delimiter
var742 = 742
delimiter
var743 = 743
delimiter
var744 = 744
delimiter
var745 = 745
delimiter
var746 = 746
delimiter
var747 = 747
delimiter
var748 = 748
delimiter
var749 = 749
delimiter
var750 = 750
delimiter
var751 = 751
delimiter
var752 = 752
delimiter
var753 = 753
delimiter
var754 = 754
delimiter
var755 = 755
delimiter
var756 = 756
delimiter
var757 = 757
delimiter
var758 = 758
delimiter
var759 = 759
delimiter
var760 = 760
delimiter
var761 = 761
delimiter
var762 = 762
delimiter
var763 = 763
delimiter
var764 = 764
delimiter
var765 = 765
delimiter
var766 = 766
delimiter
var767 = 767
delimiter
var768 = 768
delimiter
var769 = 769
delimiter
var770 = 770
delimiter
var771 = 771
delimiter
var772 = 772
delimiter
var773 = 773
delimiter
var774 = 774
delimiter
var775 = 775
delimiter
var776 = 776
delimiter
var777 = 777
delimiter
var778 = 778
delimiter
var779 = 779
delimiter
var780 = 780
delimiter
var781 = 781
delimiter
var782 = 782
delimiter
var783 = 783
delimiter
var784 = 784
delimiter
var785 = 785
delimiter
var786 = 786
delimiter
var787 = 787
delimiter
var788 = 788
delimiter
var789 = 789
delimiter
var790 = 790
delimiter
var791 = 791
delimiter
var792 = 792
delimiter
var793 = 793
delimiter
var794 = 794
delimiter
var795 = 795
delimiter
var796 = 796
delimiter
var797 = 797
delimiter
var798 = 798
delimiter
var799 = 799
delimiter
var800 = 800
delimiter
var801 = 801
delimiter
var802 = 802
delimiter
var803 = 803
delimiter
var804 = 804
delimiter
var805 = 805
delimiter
var806 = 806
delimiter
var807 = 807
delimiter
var808 = 808
delimiter
var809 = 809
delimiter
var810 = 810
delimiter
var811 = 811
delimiter
var812 = 812
delimiter
var813 = 813
delimiter
var814 = 814
delimiter
var815 = 815
delimiter
var816 = 816
delimiter
var817 = 817
delimiter
var818 = 818
delimiter
var819 = 819
delimiter
var820 = 820
delimiter
var821 = 821
delimiter
var822 = 822
delimiter
var823 = 823
delimiter
var824 = 824
delimiter
var825 = 825
delimiter
var826 = 826
delimiter
var827 = 827
delimiter
var828 = 828
delimiter
var829 = 829
delimiter
var830 = 830
delimiter
var831 = 831
delimiter
var832 = 832
delimiter
var833 = 833
delimiter
var834 = 834
delimiter
var835 = 835
delimiter
var836 = 836
delimiter
var837 = 837
delimiter
var838 = 838
delimiter
var839 = 839
delimiter
var840 = 840
delimiter
var841 = 841
delimiter
var842 = 842
delimiter
var843 = 843
delimiter
var844 = 844
delimiter
var845 = 845
delimiter
var846 = 846
delimiter
var847 = 847
delimiter
var848 = 848
delimiter
var849 = 849
delimiter
var850 = 850
delimiter
var851 = 851
delimiter
var852 = 852
delimiter
var853 = 853
delimiter
var854 = 854
delimiter
var855 = 855
delimiter
var856 = 856
delimiter
var857 = 857
delimiter
var858 = 858
delimiter
var859 = 859
delimiter
var860 = 860
delimiter
var861 = 861
delimiter
var862 = 862
delimiter
var863 = 863
delimiter
var864 = 864
delimiter
var865 = 865
delimiter
var866 = 866
delimiter
var867 = 867
delimiter
var868 = 868
delimiter
var869 = 869
delimiter
var870 = 870
delimiter
var871 = 871
delimiter
var872 = 872
delimiter
var873 = 873
delimiter
var874 = 874
delimiter
var875 = 875
delimiter
var876 = 876
delimiter
var877 = 877
delimiter
var878 = 878
delimiter
var879 = 879
delimiter
var880 = 880
delimiter
var881 = 881
delimiter
var882 = 882
delimiter
var883 = 883
delimiter
var884 = 884
delimiter
var885 = 885
delimiter
var886 = 886
delimiter
var887 = 887
delimiter
var888 = 888
delimiter
var889 = 889
delimiter
var890 = 890
delimiter
var891 = 891
delimiter
var892 = 892
delimiter
var893 = 893
delimiter
var894 = 894
delimiter
var895 = 895
delimiter
var896 = 896
delimiter
var897 = 897
delimiter
var898 = 898
delimiter
var899 = 899
delimiter
var900 = 900
delimiter
var901 = 901
delimiter
var902 = 902
delimiter
var903 = 903
delimiter
var904 = 904
delimiter
var905 = 905
delimiter
var906 = 906
delimiter
var907 = 907
delimiter
var908 = 908
delimiter
var909 = 909
delimiter
var910 = 910
delimiter
var911 = 911
delimiter
var912 = 912
delimiter
var913 = 913
delimiter
var914 = 914
delimiter
var915 = 915
delimiter
var916 = 916
delimiter
var917 = 917
delimiter
var918 = 918
delimiter
var919 = 919
delimiter
var920 = 920
delimiter
var921 = 921
delimiter
var922 = 922
delimiter
var923 = 923
delimiter
var924 = 924
delimiter
var925 = 925
delimiter
var926 = 926
delimiter
var927 = 927
delimiter
var928 = 928
delimiter
var929 = 929
delimiter
var930 = 930
delimiter
var931 = 931
delimiter
var932 = 932
delimiter
var933 = 933
delimiter
var934 = 934
delimiter
var935 = 935
delimiter
var936 = 936
delimiter
var937 = 937
delimiter
var938 = 938
delimiter
var939 = 939
delimiter
var940 = 940
delimiter
var941 = 941
delimiter
var942 = 942
delimiter
var943 = 943
delimiter
var944 = 944
delimiter
var945 = 945
delimiter
var946 = 946
delimiter
var947 = 947
delimiter
var948 = 948
delimiter
var949 = 949
delimiter
var950 = 950
delimiter
var951 = 951
delimiter
var952 = 952
delimiter
var953 = 953
delimiter
var954 = 954
delimiter
var955 = 955
delimiter
var956 = 956
delimiter
var957 = 957
delimiter
var958 = 958
delimiter
var959 = 959
delimiter
var960 = 960
delimiter
var961 = 961
delimiter
var962 = 962
delimiter
var963 = 963
delimiter
var964 = 964
delimiter
var965 = 965
delimiter
var966 = 966
delimiter
var967 = 967
delimiter
var968 = 968
delimiter
var969 = 969
delimiter
var970 = 970
delimiter
var971 = 971
delimiter
var972 = 972
delimiter
var973 = 973
delimiter
var974 = 974
delimiter
var975 = 975
delimiter
var976 = 976
delimiter
var977 = 977
delimiter
var978 = 978
delimiter
var979 = 979
delimiter
var980 = 980
delimiter
var981 = 981
delimiter
var982 = 982
delimiter
var983 = 983
delimiter
var984 = 984
delimiter
var985 = 985
delimiter
var986 = 986
delimiter
var987 = 987
delimiter
var988 = 988
delimiter
var989 = 989
delimiter
var990 = 990
delimiter
var991 = 991
delimiter
var992 = 992
delimiter
var993 = 993
delimiter
var994 = 994
delimiter
var995 = 995
delimiter
var996 = 996
delimiter
var997 = 997
delimiter
var998 = 998
delimiter
var999 = 999